10
1
1
64
0.00016204793064389378
-7.074686436681077e-05
2.3840371795813553e-05
2.62783814832801e-05
5.368720303522423e-05
3.115277650067583e-05
4.672995419241488e-05
0.00021276595361996442
-0.0001104528782889247
-0.0001077484994311817
-0.00016107817646116018
-0.0001222565333591774
-6.277811735344585e-06
-0.00014764330990146846
0.00021492448286153376
8.978397090686485e-05
-0.0003212464216630906
3.89154301956296e-05
-0.0002121300349244848
-1.3390908861765638e-05
5.5958556913537905e-05
0.0003398355620447546
0.00021434739755932242
4.7050067223608494e-05
5.3770094382343814e-05
1.3939741620561108e-05
-3.695431132655358e-06
-0.0003817964461632073
2.2508043912239373e-05
-0.00011356121831340715
4.3458967411424965e-05
5.5020282161422074e-05
-9.407495963387191e-05
-0.00016697800310794264
-0.00012652217992581427
-0.00014029938029125333
-3.8930367736611515e-05
-0.00010585878771962598
5.3695413953391835e-05
-9.691782179288566e-05
-8.403480023844168e-06
-0.00012408762995619327
0.00036883671418763697
-9.940795280272141e-06
-0.0003546798834577203
6.643539381911978e-05
-9.061465243576095e-05
-5.609010986518115e-05
0.0002289696567459032
-1.2311854334257077e-05
-0.0009798607788980007
9.043460158864036e-05
-1.4393478522833902e-05
-9.928443614626303e-05
4.0107437371261767e-07
-6.212432344909757e-05
-6.0555641539394855e-05
0.00013809770462103188
0.0004001493798568845
4.191034167888574e-05
4.746260310639627e-05
-3.814873707597144e-05
1.8429973351885565e-05
-0.00019492297724355012
