10
1
1
128
-3.306276266812347e-05
-2.1708199710701592e-05
-4.7575627831975e-05
1.1428362995502539e-05
-1.1445737982285209e-05
-2.5317784093203954e-05
-9.039182486958453e-07
2.843947549990844e-05
7.088776328600943e-06
-3.628886042861268e-05
-5.519003934750799e-06
-1.1325542800477706e-05
-3.6141020245850086e-05
1.0395444405730814e-05
-1.6378566215280443e-05
-4.6899443987058476e-05
-1.1666176760627422e-05
2.541434696468059e-05
1.997850813495461e-05
1.7271077012992464e-05
5.0050521167577244e-06
1.250690502274665e-06
-6.392976047209231e-06
-1.1059360360832216e-07
1.927364564835443e-06
2.172730319216498e-06
3.0960536605562083e-06
-2.941115099019953e-06
-5.511100880539743e-06
-1.4755569281987846e-05
-2.836782550730277e-05
5.250348294794094e-06
-8.243358024628833e-06
-1.7971586885323632e-06
4.963570518157212e-06
4.101389549759915e-06
1.3133612810634077e-06
-1.8866528989747167e-05
6.996443516982254e-06
-1.3743181170866592e-06
3.0400064133573323e-05
1.6263971701846458e-05
1.638033722883847e-06
4.0958817407954484e-05
-1.6509942724951543e-05
-4.720216566056479e-06
5.368053098209202e-05
-2.19690082303714e-06
-2.4997407308546826e-06
8.584132046962623e-06
6.679727903247112e-06
-3.0999894988781307e-06
-1.58270665906457e-07
1.7293870769208297e-05
-9.424067684449255e-06
2.6750433335109847e-06
1.914739868880133e-06
-2.347471126995515e-05
-5.75368221689132e-06
1.4316760825749952e-06
-2.8913987989653833e-05
-7.162912424973911e-06
1.9166544007021002e-05
5.547896307689371e-06
1.8511663029130432e-06
1.2520389645942487e-05
-4.013079433207167e-06
-3.832537549897097e-05
1.3744907846557908e-05
-5.596832579612965e-06
3.3834610349003924e-06
-7.79309448262211e-06
3.759332321351394e-05
5.291027491693967e-07
-6.826217031630222e-06
1.8577622540760785e-05
-5.973892257316038e-06
3.0637502277386375e-06
-1.5053973584144842e-05
-6.818437213951256e-06
7.611122327944031e-06
-1.961607085831929e-05
8.581847396271769e-06
4.701904799730983e-06
1.9913501091650687e-05
-1.1507865565363318e-05
-9.934415174939204e-06
6.394416232069489e-06
-9.331561159342527e-06
5.06442847836297e-06
1.905407043523155e-05
-1.2870797036157455e-05
-1.5900379366939887e-05
-6.033319550624583e-07
-2.6751191398943774e-05
1.1977024769294076e-05
-6.265752745093778e-05
-3.185022796969861e-05
1.088388125936035e-05
4.2293038859497756e-05
-1.61106090672547e-05
1.059270744008245e-06
5.879614400328137e-05
5.2928960940334946e-05
-1.819758654164616e-05
-2.7289235731586814e-05
1.5114881534827873e-05
-2.1905061657889746e-06
-5.1627571338030975e-06
-3.553982242010534e-05
-5.584839982475387e-06
4.2051604395965114e-05
7.719732820987701e-06
-2.2829248337075114e-05
2.585286711109802e-05
1.9626452285592677e-06
-2.2923501319382922e-07
1.7217342929143342e-06
1.657920984143857e-05
7.529644790338352e-06
1.0828721315192524e-06
-4.788787464349298e-06
-1.1234769772272557e-06
2.393045178905595e-05
9.710747690405697e-06
-4.970260306436103e-06
4.223518772050738e-05
2.9848524718545377e-06
