10
1
1
64
0.0001540031807962805
-0.000177254099980928
-5.658386362483725e-05
0.00012849486665800214
-4.2587565985741094e-05
2.425527600280475e-05
-1.6425228750449605e-05
-6.21495782979764e-05
0.00010020459012594074
0.0001359048910671845
-7.051996817608597e-06
3.7113946746103466e-05
4.1519808291923255e-05
-1.5933974282233976e-05
-2.1572919649770483e-05
-0.00011778425687225536
7.983277464518324e-05
-5.041110489401035e-05
-1.3594384654425085e-05
-2.6504096240387298e-05
-0.00010274123633280396
0.00011600612924667075
-9.133495950663928e-06
-2.475764267728664e-05
-0.0001308058126596734
8.664390406920575e-06
-0.00013105875405017287
3.869613283313811e-05
-5.7294269936392084e-05
6.31123566563474e-06
-3.3393091143807396e-05
3.467246642685495e-05
-9.383502037962899e-05
0.00010149598529096693
1.0824250011864933e-06
-6.462704186560586e-05
6.353307981044054e-05
-1.2334121493040584e-05
9.115520515479147e-05
0.00012197288742754608
3.733114863280207e-05
-6.018475323799066e-05
7.137885404517874e-05
4.4266522309044376e-05
3.246485357522033e-05
5.491983029060066e-05
-8.980452548712492e-06
-6.0627105995081365e-05
1.987749055842869e-05
-2.7248268452240154e-05
-2.4915747417253442e-05
-4.605140566127375e-05
-7.659117545699701e-05
-6.513005791930482e-05
0.00017092062626034021
-0.00020270196546334773
-1.7569416286278283e-06
-6.665739419986494e-06
-0.00012323925329837948
-0.00016623972624074668
-2.2084936063038185e-05
7.03957921359688e-05
-2.0041099560330622e-05
-5.362991214497015e-05
