10
1
1
64
0.0001224902953254059
0.0002510186459403485
-3.449456562520936e-05
1.717994746286422e-05
-7.882309728302062e-05
4.0743536374066025e-05
1.8998822270077653e-05
4.0001476008910686e-05
-0.00026868152781389654
-3.3117907150881365e-05
0.00031867041252553463
7.557728531537578e-05
-7.507152622565627e-05
-0.0008749144617468119
0.00048411713214591146
-0.00017260776076000184
-1.0308969649486244e-05
-0.0001701173750916496
-0.00022010563407093287
-0.0006820132257416844
-0.0001799841847969219
-0.0006340250256471336
-0.00019203418924007565
0.00017089233733713627
-0.00015411565254908055
-1.207381774293026e-05
-0.00011409125727368519
0.00022317716502584517
5.3308809583541006e-05
-0.0003525767824612558
-1.4655470295110717e-05
-0.00036223779898136854
-0.00016391622193623334
-0.00028194181504659355
0.00012999921455048025
-0.00016045359370764345
-6.834352825535461e-05
-0.00010435769945615903
0.0003612796135712415
-0.00024879039847292006
2.1374347852542996e-05
0.000464360840851441
-0.00020615069661289454
-0.00021852126519661397
0.00031397753627970815
6.745457358192652e-05
-2.5561679649399593e-05
-8.311007695738226e-05
-4.948742571286857e-05
-0.000492588325869292
-0.0004556926724035293
-2.9445427571772598e-06
0.0001320794108323753
-0.00020008443971164525
0.00027628501993604004
-0.00013294798554852605
-0.0005478111561387777
0.00023366925597656518
0.0002927255700342357
0.000243739370489493
-0.00046065886272117496
-0.0001570016029290855
-3.603599907364696e-05
0.00019657862139865756
