10
1
1
64
-0.0013217837549746037
-0.0014042251277714968
-0.000197294051758945
-0.0004882116918452084
-0.0004164318961557001
-0.001193265081383288
0.0003258543147239834
-0.00023551276535727084
0.000999242765828967
0.0008527056779712439
0.00030981266172602773
-0.00021092982206027955
-0.0005111440550535917
0.0006355684599839151
-0.00024587399093434215
0.00030974182300269604
-0.0007311462541110814
-0.00038470153231173754
0.00028983427910134196
0.00023068570590112358
0.00075185252353549
-0.0007288575288839638
4.218198955641128e-05
4.9548376409802586e-05
-0.00019487163808662444
0.00042022758862003684
-3.2232568628387526e-05
-0.000800822745077312
0.0009734757477417588
0.0007143227849155664
-0.0002572103694546968
-0.0007812842377461493
0.0006948022055439651
0.0004949405556544662
0.00023591752687934786
0.0001636189263081178
0.0014286291552707553
6.419604324037209e-05
-0.00021239789202809334
-0.0004731265944428742
-0.0005499391118064523
5.574069655267522e-05
-1.4120722880761605e-05
-0.00018709118012338877
-0.0004175689828116447
-0.00134744041133672
1.927932862599846e-05
0.0005311563145369291
0.00047305558109655976
0.00019346235785633326
-0.0008274414576590061
-0.00046216900227591395
0.0005124598392285407
-0.0009097857400774956
4.9164013034896925e-05
-0.0003732428012881428
-0.0009802738204598427
-9.10220987861976e-05
-0.0005989379133097827
0.0001271216169698164
-0.00025885325158014894
-0.0004865434020757675
-0.0006014990503899753
-0.00038538628723472357
