10
1
1
128
-0.00036335838376544416
-8.951350901043043e-05
-2.263036003569141e-05
0.00015223119407892227
8.721925405552611e-05
-3.688170909299515e-05
3.6444165743887424e-05
-6.679249054286629e-05
0.0004336686397437006
9.295440395362675e-05
0.00017098353418987244
-0.00010874444706132635
0.0002112112706527114
4.158466981607489e-05
-0.0002112166112056002
7.053232548059896e-05
0.0001670293277129531
0.00016879575559869409
-4.7793702833587304e-05
-0.00023377218167297542
0.00025201906100846827
-0.0003255314368288964
-0.0005435736384242773
0.00012063980830134824
2.1707492123823613e-05
-0.0003601058851927519
-2.1631138224620372e-05
-3.2248717616312206e-05
-7.398472371278331e-05
0.00017026180285029113
1.813211929402314e-05
-4.5252447307575494e-05
-0.0006140382029116154
-8.036028157221153e-05
0.00011227797949686646
7.445891969837248e-05
0.0002024240093305707
-0.00016421945474576205
-0.00018995505524799228
-0.00013282275176607072
-2.3070677343639545e-05
-0.00012256520858500153
-0.00015963517944328487
1.60640302055981e-05
1.5384037396870553e-05
-0.00015644509403500706
4.821030961466022e-05
-5.42718953511212e-05
0.00032002333318814635
0.0002133992238668725
0.00015032800729386508
0.0001909170241560787
9.425327880308032e-05
8.344603884324897e-06
-0.00011915774666704237
0.00039901642594486475
-2.107288128172513e-05
1.2338917258603033e-05
0.00048050074838101864
-0.00025165925035253167
-1.5593835996696725e-05
0.0002855563070625067
-0.00018356653163209558
-0.0003836536197923124
-0.0001472670992370695
-1.311201776843518e-05
-0.00010898242908297107
-4.1240280552301556e-05
-4.43437384092249e-05
-0.00011783507216023281
-0.00010653141362126917
0.00015320812235586345
-0.0006214147433638573
-0.00011956018715864047
5.842513564857654e-05
-0.00034198089269921184
-0.00021801050752401352
-6.452813249779865e-05
0.0001762988104019314
-0.0001215087904711254
0.00027674948796629906
-0.00013683389988727868
-0.00040650978917256
-3.940681563108228e-05
-6.708907312713563e-05
0.0005665580392815173
0.00013061569188721478
-5.807454726891592e-05
-0.00011881197133334354
1.35652035169187e-05
0.000176344663486816
0.00010620136890793219
-0.00011748461110983044
-0.00010418656893307343
4.93235384055879e-05
7.729093340458348e-05
-0.00015950681699905545
0.0001560460077598691
8.798901035333984e-06
-3.827004547929391e-05
0.0001388795644743368
-4.27969207521528e-05
-0.00045548935304395854
0.0003136820159852505
-6.388310430338606e-05
0.00019489240366965532
-0.00016719188715796918
-0.00018095545237883925
0.0001048698541126214
0.00018021822324953973
-0.00044751152745448053
-9.232494630850852e-05
-1.7816102626966313e-05
-0.00013460402260534465
-8.022179827094078e-05
-1.4721989828103688e-05
-0.00017047242727130651
-0.00022824053303338587
-0.00012943250476382673
-8.003613038454205e-05
0.0001346602221019566
2.0993722500861622e-05
0.00033814378548413515
6.526469223899767e-05
0.0001565181592013687
-9.714874613564461e-05
0.00010330380609957501
0.0004339228034950793
