10
1
1
128
-3.191177165717818e-05
5.873309783055447e-05
7.26235011825338e-05
-0.00017820062930695713
-2.484190190443769e-05
-7.821241524652578e-06
0.0001774258416844532
-0.00011767714750021696
0.00011898438242496923
-7.498167542507872e-05
-3.37206874974072e-05
-0.00017219905566889793
-2.6549108952167444e-05
-5.951386265223846e-05
-0.00015400636766571552
-0.00012179120676591992
-3.088993253186345e-05
-5.20420799148269e-05
-3.4605578548507765e-05
0.00011680663010338321
0.00020293683337513357
2.9441824153764173e-05
-1.5072386304382235e-05
-0.00016186687571462244
8.305192750412971e-05
-0.00010045817180071026
-3.9999937143875286e-05
-2.4005490558920428e-05
-7.211611227830872e-05
-6.243807729333639e-05
4.8854839405976236e-05
4.4217988033778965e-05
-9.057237912202254e-05
-1.4101117812970188e-05
-0.00011167744378326461
-0.00012438562407623976
0.00010969293361995369
0.00012608505494426936
-3.504147753119469e-05
1.9973847884102724e-05
-5.5616608733544126e-05
8.476701623294502e-05
-1.5241877235894208e-06
-5.120303831063211e-05
5.6408454838674515e-05
-3.476039637462236e-05
8.100897684926167e-05
5.542399958358146e-05
5.282747224555351e-05
5.5748281738488004e-05
1.2280242117412854e-05
-0.0003395926905795932
1.0636130355123896e-05
5.399048313847743e-05
0.0001135799684561789
-5.604665147984633e-06
-9.095651876123156e-06
-2.824343209795188e-05
-5.9281937865307555e-05
3.808887049672194e-05
4.628481110557914e-05
0.0004306500486563891
0.00013774455874226987
-9.546701039653271e-05
8.869819430401549e-05
3.6059336707694456e-05
3.9893096982268617e-05
7.260777056217194e-05
-6.277624925132841e-05
-0.00011402620293665677
-1.74823453562567e-05
-0.00015968344814609736
4.236448148731142e-05
3.6950077628716826e-05
0.00026574378716759384
-3.0004817745066248e-05
1.388154942105757e-05
-5.531608985620551e-05
4.5775334001518786e-05
-3.075203130720183e-05
4.5016877265879884e-05
-2.8836266210419126e-05
2.2676526896248106e-06
2.464062890794594e-05
-4.564676419249736e-05
-7.780118176015094e-05
8.928668648877647e-06
-1.4294849279394839e-05
-4.871909550274722e-05
3.9288875996135175e-05
-7.390759856207296e-05
-0.00028503232169896364
-9.730953752296045e-05
-0.00012559426249936223
-4.391594848129898e-05
-0.0002477993839420378
-5.191437230678275e-05
0.0001502523955423385
-0.0001510966831119731
-2.0405510440468788e-05
8.131013601087034e-05
0.00031248730374500155
4.5374657929642126e-05
-3.8729423977201805e-05
3.2303421903634444e-05
0.00013600730744656175
0.0003134225553367287
4.774648186867125e-05
-8.118394703160448e-07
2.2666881704935804e-08
-0.00011265695502515882
-5.5772434279788285e-05
-4.7242891014320776e-05
6.178888725116849e-05
-0.00025972165167331696
-0.0002114348899340257
-9.282754035666585e-06
-1.8337686924496666e-05
-3.209673013770953e-05
-0.00013215953367762268
6.399506673915312e-05
-5.1671006076503545e-05
-6.569255492649972e-05
0.0001666978932917118
-0.000541690387763083
3.1510237477050396e-06
-6.390197995642666e-06
8.620612061349675e-05
