10
1
1
256
7.647138409083709e-05
-1.5170914593909401e-05
-7.88882880442543e-06
-1.255268944078125e-05
1.4281295079854317e-05
-9.106582183449063e-06
-2.346043947909493e-05
-9.151701192422479e-07
-6.567739205820544e-07
9.30697979129036e-07
-2.113762093358673e-05
-5.238782705418998e-06
6.1854434534325264e-06
3.401250432943925e-05
-6.728842890879605e-06
-1.1964933037234005e-05
-0.00014957960229367018
5.158963631402003e-06
-4.348126822151244e-06
7.39748202249757e-06
-7.24152278053225e-06
-1.0941963637378649e-06
3.989985634689219e-05
1.0228651262877975e-05
1.111730671254918e-05
1.0238146387564484e-05
3.093354098382406e-05
4.566411007544957e-05
-9.772843441169243e-06
-1.1291737791907508e-05
-5.527511802938534e-06
-1.5271045413101092e-05
7.996147905942053e-05
2.270979712193366e-05
-5.635011621052399e-05
-2.032857264566701e-05
-3.445003130764235e-06
-3.795824886765331e-05
-1.5951906107147806e-06
-9.985818905988708e-06
-9.558266356179956e-06
4.8213754780590534e-05
-2.5797260605031624e-05
-3.2983836717903614e-05
1.123247784562409e-05
-3.799853948294185e-05
3.341420233482495e-05
3.8715065784344915e-06
4.995176823285874e-06
-4.1499257349641994e-05
1.4037540495337453e-05
-9.261896593670826e-06
3.8960274650889914e-06
1.8987295788974734e-06
-2.6277703000232577e-05
3.684765033540316e-05
-1.875836096587591e-05
-1.2744779269269202e-05
5.823461378895445e-06
-2.8079522962798364e-05
-1.2406513633322902e-05
-3.523650775605347e-06
3.2281768653774634e-05
2.7108605991088552e-06
-1.3805922208121046e-05
-7.170776257225953e-07
3.297324292361736e-05
2.5836083295871504e-05
-2.779841270239558e-05
-2.475943256285973e-05
-7.754621765343472e-05
4.6253866457846016e-05
2.3967947981873294e-06
2.497419700375758e-05
-2.3990718545974232e-05
-3.6951809306629e-05
-1.7113364947363152e-08
-2.2648020603810437e-05
-7.883518992457539e-05
-6.42745862933225e-06
-4.329553121351637e-05
-7.279234978341265e-06
-2.0862798919552006e-05
2.3021717424853705e-05
-1.7428717455914011e-06
5.215586497797631e-05
1.9075716409133747e-05
-1.3008125279156957e-05
-5.059094746684423e-06
-1.0945525900751818e-05
2.723384113778593e-06
-1.9537053503881907e-06
4.913851444143802e-05
2.4778041733952705e-06
8.158116543199867e-06
-1.624567448743619e-05
3.15920879074838e-05
-1.2611468264367431e-05
1.6757727280491963e-05
-1.5399860785692e-05
-2.2301539502223022e-05
-4.136986535741016e-05
1.748631621012464e-05
-6.397901597665623e-05
-1.0138127436221112e-05
2.3082629923010245e-05
2.6828554382518632e-06
-4.6823750210478465e-08
7.5037178248749115e-06
-8.917306331568398e-06
9.957680049410556e-06
-3.6555746191879734e-05
2.5774192181415856e-05
-2.6127416276722215e-05
-1.6430298273917288e-05
-3.0821363907307386e-05
-3.11551229970064e-05
5.868354946869658e-06
-2.196876630478073e-05
-2.700188269955106e-05
3.968299279222265e-05
2.7194020731258206e-05
-1.571987013448961e-05
-6.0870247580169234e-06
1.083082224795362e-06
-2.2138779968372546e-05
-1.359293037239695e-05
1.7763519508662284e-06
2.9140653623471735e-06
-1.2726416116493056e-06
-3.438529745380947e-07
3.7622852687491104e-05
-0.00013941519137006253
5.273952046991326e-05
7.3544952101656236e-06
-2.2232056835491676e-06
-5.682251139660366e-05
-6.96446704750997e-07
5.2636976761277765e-05
-2.748919723671861e-05
1.3844857676303945e-05
-7.13927875040099e-05
-5.066125595476478e-05
3.7490270187845454e-05
8.63736386236269e-06
-4.89200090214581e-07
1.8847065348381875e-06
2.615079029055778e-05
-3.367934550624341e-05
3.4916240110760555e-05
-7.0890750976104755e-06
8.821907613310032e-06
1.3868363566871267e-05
-6.34531852483633e-06
-3.121249392279424e-05
5.037717528466601e-06
-1.6082007277873345e-05
3.336056397529319e-05
-1.679650267760735e-05
3.180039857397787e-05
2.712843706831336e-05
2.5363775421283208e-05
-1.8868637198465876e-05
-3.26687004417181e-05
1.5224816706904676e-05
-1.8574304704088718e-05
-3.4587767004268244e-05
-5.087555109639652e-05
-8.641735803394113e-06
7.111705781426281e-05
3.666959673864767e-05
1.0571483471721876e-05
-3.102206392213702e-05
-1.1222753528272733e-05
-5.577491538133472e-05
-2.6655345209292136e-05
-3.0742419767193496e-05
-1.9285396319901338e-06
2.6198551495326683e-05
2.0785080323548755e-06
-0.00018845127488020808
-4.430211993167177e-05
-2.2776683181291446e-05
-9.741828762344085e-06
8.742322097532451e-05
-6.270358881010907e-06
1.341658025921788e-05
2.4112498522299575e-06
-2.8004000341752544e-05
2.6467123461770825e-05
-1.4632651073043235e-06
1.752167554514017e-05
-3.221951601517503e-06
-6.565100648003863e-06
-4.642603244064958e-07
-1.9158795112161897e-05
3.438901694607921e-05
8.145490937749855e-06
-6.505719056804082e-07
2.9601882488350384e-05
3.087114237132482e-05
3.0969063118391205e-06
-7.526336958108004e-06
-2.270633331136196e-06
-5.4788564739283174e-05
2.833426151482854e-05
-7.958830246934667e-05
-8.990955393528566e-06
6.0099038819316775e-05
-4.183928103884682e-05
-1.7854566976893693e-05
-1.9322458228998585e-06
-1.0105687579198275e-05
4.688615263148677e-06
4.313819226808846e-05
-6.340380787150934e-05
-3.5037890484090894e-05
-4.081629231222905e-05
-4.591601464198902e-05
-4.501505827647634e-06
-7.264705800480442e-06
5.174856596568134e-06
5.8157434068562e-06
1.6979123756755143e-05
3.0004657673998736e-05
-6.0292626585578546e-05
-6.131073860160541e-06
-1.6682313798810355e-05
-7.879592885728925e-05
-3.941671457141638e-05
-1.7542901332490146e-05
-4.029977844766108e-06
-8.625238115200773e-05
-3.1717485398985445e-05
-5.790505838376703e-06
4.6880770241841674e-05
-1.3696462701773271e-05
-1.9215089196222834e-05
-5.595423317572568e-06
-3.883825411321595e-05
8.204707455661264e-07
1.740973129926715e-05
2.147168015653733e-05
1.0765525075839832e-05
-8.647288632346317e-05
4.66694327769801e-05
-3.132219717372209e-05
4.2801417293958366e-05
-7.143480615923181e-06
1.3021110135014169e-05
-4.853029895457439e-05
1.3248255527287256e-05
1.7170915498354589e-06
2.1152095541765448e-06
-3.3485721360193565e-05
-1.313017764914548e-05
