10
1
1
256
-2.6195617465418763e-05
-3.245928746764548e-05
-2.9564166652562562e-06
-3.094277417403646e-05
-7.991177994881582e-07
2.4034084162849467e-06
1.048200920195086e-05
-1.5301446183002554e-05
-4.2932229007419664e-06
-1.5812975107110105e-05
-1.5240931134030689e-05
-4.720911874755984e-06
2.2274614821071737e-05
8.383396561839618e-06
5.076932211522944e-05
-3.2818948056956287e-06
2.767445766949095e-05
-3.5630841011879966e-05
-3.127155707716156e-07
-1.1737319255189504e-05
1.96926648641238e-05
8.164637677054998e-08
4.2501804273342714e-05
-4.131211881031049e-06
1.2120615792809986e-05
4.48171795142116e-06
2.7104499167762697e-05
3.327396598251653e-07
1.4014606222190196e-06
2.4799890525173396e-05
1.0392262993264012e-05
-3.0159933430695673e-06
2.1065707187517546e-05
-2.8493286663433537e-06
2.618930011522025e-05
2.016898179135751e-05
-7.070106221362948e-05
-7.323074441956123e-06
-2.0843212041654624e-05
4.7084552079468267e-07
3.897239366779104e-07
9.667332960816566e-07
-1.448736475140322e-05
2.5263017960241996e-05
-8.367876034753863e-06
3.588085633055016e-07
-3.601860225899145e-05
1.9462650016066618e-05
-1.0077267688757274e-05
-3.4829872674890794e-07
3.3338539651595056e-05
2.757154288701713e-05
1.2145493428761256e-06
-1.5535088095930405e-06
-7.87380395195214e-06
8.411199814872816e-06
-1.8544365957495756e-05
1.948386852745898e-05
-1.7080416000680998e-05
-5.305436843627831e-06
1.0248107173538301e-05
-1.744723522278946e-05
1.3669383406522684e-05
2.1820612801093375e-06
5.811742198602587e-07
1.778063779056538e-05
-4.4172680645715445e-05
-6.49960668397398e-07
4.984439874533564e-05
-1.2613219951163046e-05
-5.171187922314857e-07
-1.8839258700609207e-05
3.2493835533387028e-06
-1.4933099009795114e-05
-4.419194010552019e-05
-4.22243090270058e-07
-1.041707832882821e-06
-9.206976756104268e-06
2.03624258574564e-05
-7.69919836329791e-07
4.853694463236025e-06
4.810604514204897e-05
-2.1146221115486696e-05
-9.867234621196985e-05
1.6390575183322653e-05
-2.3158820113167167e-05
1.052334664564114e-05
-1.296612845180789e-05
-3.298938054285827e-06
-1.2631311619770713e-05
-1.7309019995082053e-06
1.366996093565831e-05
4.888567673333455e-06
-9.970563041861169e-06
-1.4740008737135213e-05
6.689235306112096e-06
6.30872182227904e-06
-2.738051080086734e-06
-6.092841999816301e-07
-5.738454547099536e-06
-3.0165721909725107e-05
-1.4784906852582935e-05
-7.024783826636849e-06
-1.0359775615143008e-06
-8.483357305522077e-06
2.2147535219119163e-06
1.1305876057576825e-07
-2.167472075598198e-06
9.285467967856675e-06
-9.316020168625982e-07
-6.734191174473381e-06
-3.853045654977905e-06
-4.770918167196214e-06
-1.4994092452980112e-05
-1.6563792087254114e-05
2.5254039428546093e-05
5.000852979719639e-06
-1.5517995052505285e-05
1.1066031220252626e-06
-1.2532567779999226e-05
-1.6598174624959938e-05
-3.4339389003434917e-06
1.6811300156405196e-05
-1.1411705600039568e-05
1.1283542335149832e-05
-3.508598092594184e-05
1.3508085885405308e-06
1.6077661712188274e-05
4.501304283621721e-05
-1.2106364010833204e-05
-3.960188405471854e-05
-1.5721785530331545e-05
7.516343885072274e-06
1.4026451026438735e-05
-1.9577755665523e-06
5.215828878135653e-06
6.092580861150054e-06
9.394053449796047e-06
7.296886451513274e-06
1.4926184121577535e-05
3.2924087918217992e-06
-7.19382478564512e-06
-1.0115428267454263e-05
1.4971163182053715e-05
4.7521793021587655e-05
2.147831219190266e-05
-2.752504542513634e-06
-1.239068660652265e-05
5.653625703416765e-05
-6.191905413288623e-05
6.365018180076731e-06
1.931219048856292e-05
-4.525432814261876e-05
-1.0906608622462954e-05
2.9123524655005895e-05
-7.455678769474616e-06
-1.1310681657050736e-05
4.32024389738217e-05
-1.1909740351256914e-05
1.2335280189290643e-05
-4.223578071105294e-05
8.85861766164453e-08
3.1364477308670757e-06
-1.4407805792870931e-05
3.4887620131485164e-05
-4.3430450205050875e-06
8.685554462317668e-07
-1.8376069419900887e-05
-2.250898205602425e-06
9.012647205963731e-05
-3.370120975887403e-05
1.3934962225903291e-05
-1.646118903408933e-06
8.619397704023868e-06
2.675249743333552e-05
1.619126919649716e-06
-4.337542577559361e-06
-3.20478784487932e-06
1.1508377610880416e-06
2.2514991542266216e-06
2.744033963608672e-06
6.423765626095701e-06
5.337313996278681e-05
-1.3260513696877751e-05
-1.757390782586299e-05
-8.088072718237527e-07
-8.41614053115336e-07
-1.0336631930840667e-05
2.396547824901063e-05
-1.5260693544405513e-05
-2.8095796551497187e-06
-4.0415663534076884e-05
-9.02382453205064e-06
-3.401020421733847e-06
-3.5695168207894312e-06
3.5422976907284465e-06
6.229612949937291e-07
-2.43677754951932e-06
3.4867023259721464e-06
-2.539788965805201e-06
-3.461564119788818e-05
-2.5206561531376792e-06
1.0698230425987276e-06
4.6265095079434104e-06
9.457390319767001e-07
-2.9893559258198366e-05
-1.5149618093346362e-06
-6.173167639644817e-05
2.248712689834065e-06
-7.977612767717801e-06
-6.261208454816369e-06
-1.1968847502430435e-05
-2.2342930606100708e-05
-1.2724570296995807e-05
-2.6165264443989145e-06
-4.373807769297855e-06
-6.866691364848521e-06
6.278648925217567e-06
-7.480204544663138e-07
4.7102685130084865e-06
-7.27422593627125e-06
-1.745061126712244e-05
-1.0955887773889117e-05
1.4817462215432897e-05
2.595475052658003e-06
3.790888877119869e-05
-2.276143459312152e-05
3.1562387903250055e-06
-1.7203223251271993e-05
-7.257362085510977e-06
-2.3130935744575254e-07
-4.940271537634544e-06
-1.123117544921115e-05
-1.2965476344106719e-05
4.848080425290391e-05
-2.195098659285577e-06
-5.161971421330236e-05
8.330946911883075e-06
6.981686055951286e-06
-1.4454982192546595e-05
-4.052572421642253e-06
-1.8723994799074717e-06
-1.020922718453221e-05
1.3031363778281957e-05
2.295606236657477e-06
2.0140529159107246e-05
-2.5816292691160925e-05
-3.39321672981896e-08
-3.367896715644747e-05
-7.542169896623818e-06
-1.3985124496684875e-05
-1.7114109141402878e-05
-5.001658064429648e-05
1.3874514479539357e-06
6.589831400560797e-07
4.109980636712862e-06
