10
1
1
512
-4.941434781358112e-06
7.640380772500066e-08
-6.371273002514499e-07
-4.1023204744305986e-07
-4.7813628043513745e-06
-1.1231800272071268e-06
9.076823062059702e-07
-9.124434654950164e-06
-1.6810638044262305e-05
1.318041995546082e-06
2.087021357510821e-06
8.748033906158525e-06
3.7786414850415895e-06
5.2863055088892e-07
8.475186405121349e-06
2.837095053109806e-06
-3.160508640576154e-06
-2.111192820564156e-08
2.413112724752864e-06
-3.2878850220185996e-07
1.1024300874851178e-05
5.9415351643110625e-06
-1.6659336097291089e-06
-5.3885050874669105e-06
-3.4140343814215157e-06
-1.9007873106602347e-06
-3.2521488719794434e-06
1.960601139217033e-06
-1.7319397329629282e-06
2.3194072582555236e-06
1.274358282898902e-06
-3.169961473759031e-06
-1.1393953172955662e-05
1.14105034754175e-06
-1.1485467439342756e-05
-3.5581490465119714e-06
7.754175385343842e-06
-2.265163857373409e-06
1.0183304766542278e-05
2.3263203274836997e-07
-5.698483164451318e-06
-1.18875584576017e-06
1.5291187764887582e-06
6.695292142921971e-08
-1.5204045666905586e-05
4.164960955677088e-06
-5.441029315988999e-07
1.0230772204522509e-05
-4.46845706392196e-06
-1.3339433735382045e-06
5.921741831116378e-06
-1.5900654943834525e-06
2.470075742166955e-06
-3.228021796530811e-06
-2.0956726984877605e-06
-6.97428549756296e-06
-1.0001756436395226e-06
-3.1426441182702547e-06
5.798719371341576e-07
-6.2632543631480075e-06
-3.5121765904477797e-06
-8.293863373864951e-08
1.6173842595890164e-05
-8.177089512173552e-06
-1.193381535813387e-06
-4.098987119505182e-06
2.7998426048725378e-06
3.3647388590907212e-06
7.400009963021148e-06
-1.6779567886260338e-06
3.088428456976544e-06
-6.774279199817101e-07
-3.8163906879162823e-07
-9.110747669183183e-06
1.1913936077689868e-06
-3.4646354833967052e-06
-1.0579305609326184e-07
-2.045571818598546e-06
1.0507150136618293e-06
7.030118922557449e-06
2.433395707157615e-07
-6.222409865586087e-06
2.8359472707961686e-06
-1.2360858363535954e-06
2.962434280107118e-07
-4.394490133563522e-06
1.865444332338484e-08
-2.916249968620832e-06
-1.2486937066569226e-06
3.835337338387035e-06
-5.759473538091697e-07
-1.5157315829128493e-05
1.958986786121386e-06
-5.137658718012972e-06
4.84024167235475e-06
1.885902520371019e-06
-6.737574040016625e-06
6.6970865191251505e-06
1.2680811778409407e-06
-4.1358935050084256e-06
4.48889977633371e-06
-1.2084466334272292e-06
2.3234090349433245e-06
1.0590679266897496e-05
-1.2242888942637364e-06
2.47578282142058e-06
7.289749532901624e-07
4.964293793818797e-07
-3.652970121947874e-07
-1.4884071788401343e-06
-1.5529156371485442e-05
4.622212600224884e-06
-1.4118073750069016e-06
8.658726073917933e-07
-1.748885006236378e-05
-3.970317550283653e-07
-5.2481827879091725e-06
1.7980711390919168e-06
-1.0509895219001919e-05
-3.8190050872799475e-06
-8.875080311554484e-06
1.430025713489158e-05
1.4380077118403278e-05
1.3697899703402072e-05
-4.650255050364649e-06
2.6741494707493985e-07
-2.1708785880036885e-07
1.4907891454640776e-06
7.057483344397042e-06
-8.147123480739538e-06
-1.991063072637189e-06
1.7466676354160882e-06
-4.44988700110116e-06
-5.632332431559917e-06
-1.2606392374436837e-06
-2.8869142170151463e-06
8.914202226151247e-06
-1.247501768375514e-05
8.460260687570553e-06
-2.0926977413182613e-06
8.24598430426704e-07
4.960249953001039e-06
-3.2045552416093415e-06
-1.9814406186924316e-06
-6.940687853784766e-06
-2.748818985764956e-07
1.2449317182472441e-05
-2.2697322492604144e-06
-1.7563139408593997e-05
-1.773589065123815e-05
-1.0238850336463656e-06
-1.4439217011386063e-05
5.755746315116994e-06
8.693918971403036e-07
-2.255111212434713e-06
-9.71010081229906e-07
-1.8387768250249792e-06
-4.756226644531125e-06
-5.729415079258615e-06
-1.4207309959601844e-06
4.9795380618888885e-06
-4.960462774761254e-06
-1.2569389582495205e-05
-1.7089072571252473e-05
-7.336429462156957e-06
4.3241034290986136e-06
1.430664610779786e-06
-7.768696377752349e-06
3.229712547181407e-06
-4.858135071117431e-06
-6.097784989833599e-06
7.513564241889981e-07
-1.5027874269435415e-06
-6.559044322784757e-06
-1.1168062883371022e-06
5.057314069745189e-07
7.256494882312836e-06
1.2326961041253526e-05
4.978863671567524e-06
-6.329545158223482e-06
9.197993676934857e-06
-3.6616545457945904e-06
1.290786258323351e-06
7.680214366700966e-06
-5.323389814293478e-06
-4.506126174419478e-07
1.1563863608898828e-06
-7.746244591544382e-06
-8.160712354765565e-07
-7.635484507773072e-06
-6.134784598543774e-06
-1.0069781637866981e-05
1.1073630048485938e-06
-8.640044143248815e-06
-1.5734420230728574e-05
-1.3546150512411259e-05
1.3981483562020003e-06
1.927499397424981e-06
9.896283614807544e-08
-2.4362187104998156e-05
-1.6190601854759734e-06
-9.280170161218848e-06
-2.9571422146545956e-06
-4.972117721990799e-07
1.0570588528935332e-05
2.2372780676960247e-06
-2.6229577088088263e-06
4.843810529564507e-06
2.3826762571843574e-06
1.984651589737041e-07
1.9804274415946566e-06
-2.528149252611911e-06
-4.012283170595765e-06
-4.850091499974951e-06
4.000535227532964e-07
-1.3460536365528242e-06
-5.121034519106615e-06
3.990790901298169e-06
-1.2632808648049831e-06
-4.718861418950837e-06
1.282685815340301e-07
-1.838905973272631e-06
8.207103974200436e-07
-3.22638220495719e-06
-4.844042450713459e-06
2.1032551558164414e-06
-3.995184215455083e-06
-1.1015237078026985e-06
5.335928108252119e-06
-4.528818408289226e-06
2.7536368634173414e-06
2.434062196243758e-08
-9.206984941556584e-06
-6.496557489299448e-06
5.696050266124075e-06
-1.3482384019880556e-05
2.610438514238922e-06
4.838683253183262e-06
2.765214617284073e-07
1.1867913372043404e-06
-2.1087714685563697e-06
1.6755980141169857e-06
-1.616425038264424e-06
-9.25545506902381e-08
-1.8102972489941749e-06
-3.023901399501483e-06
-2.7348864932719152e-06
4.297808402498049e-07
5.493088224284293e-07
2.450541160214925e-06
8.763122991695127e-07
-7.839122190489434e-06
-6.16422312305076e-07
-1.0677742466214113e-05
-4.7033194050527527e-07
-4.317016646382399e-06
6.382013907568762e-06
6.187119652167894e-06
4.974512194166891e-06
-8.107637654575228e-07
2.1312043827492744e-06
-7.842728336981963e-06
-3.580895281629637e-06
-2.854156377907202e-07
-1.2330880053923465e-05
-1.1252853255427908e-05
-4.239260761096375e-06
-1.3758794921159279e-06
4.878928848484065e-06
-3.6285041460359935e-07
-9.647950719227083e-06
-1.9322465050208848e-07
5.935426543146605e-06
1.3266534324429813e-06
-1.3049999324721284e-05
-2.288851192133734e-06
2.259792381664738e-06
-1.0652275932443445e-06
-4.2326560105721e-06
5.594768936134642e-06
-3.555039711500285e-06
-1.4063448361412156e-06
-1.6327230696333572e-06
-2.078167653962737e-06
-2.5135889245575527e-06
-2.4346174541278742e-05
-1.302393229707377e-05
-6.652549018326681e-06
-4.082844043296063e-06
-4.912463282380486e-06
2.062985231532366e-06
2.1263367671053857e-06
-6.00886914980947e-06
-6.498444804492465e-07
-5.81374297325965e-06
-8.274881793113309e-07
6.637720161961624e-06
5.236443030298688e-07
-3.402298261789838e-06
-2.203748636020464e-06
7.521146926592337e-06
2.2481337964563863e-06
3.0318628887471277e-06
-6.738004572071077e-07
6.513713742606342e-06
-3.735563950613141e-06
9.084686780624907e-07
1.651516868150793e-06
2.425040293019265e-06
-2.0278298507037107e-06
7.090507551765768e-06
-5.591076842392795e-06
-7.971341801749077e-06
-1.728327333694324e-06
8.908205018087756e-06
6.897782895975979e-06
8.64122995380967e-08
7.909372357062239e-08
-5.625232915917877e-06
5.9571439123828895e-06
1.5195058722383692e-06
-1.3864308812117088e-07
7.823616101632069e-07
7.502422363359074e-07
9.76776846073335e-08
-3.3578710372239584e-06
-2.893744976972812e-06
-1.4956929135223618e-06
-1.1041657899113488e-06
-3.040438605239615e-05
-2.195240966784695e-07
-2.9290656584635144e-06
1.9441513359197415e-06
-2.1817062588525005e-05
-8.965440429165028e-06
-2.9369980438787024e-06
-2.794828333207988e-06
-1.1804469977505505e-05
6.301414941844996e-06
-2.201866436735145e-06
9.295911695517134e-06
-1.3512524787984148e-07
-2.6051704935525777e-06
4.134927166887792e-06
-2.871550577765447e-06
-8.095032171695493e-06
-4.2394590309413616e-06
-4.7333433030871674e-06
3.79814810003154e-06
6.926896730874432e-06
-4.620046638592612e-07
-3.6689951343760185e-07
3.4628535559022566e-06
-3.4648355722310953e-06
4.51975620308076e-06
-1.4793226910114754e-05
6.4596033553243615e-06
5.863368642167188e-06
1.3203614344092784e-06
1.3717350157094188e-05
-1.3350586414162535e-05
-1.0058460247819312e-05
2.0500688151514623e-06
-1.2814607543987222e-06
3.2427254836875363e-07
-7.289031145774061e-06
-1.383790163345111e-06
9.630723525333451e-07
-6.070807785363286e-07
-7.745579750917386e-07
-1.084344944501936e-06
1.0590570127533283e-05
-4.658452780859079e-06
2.2935744254937163e-06
1.2095287274860311e-05
-7.2492198341933545e-06
4.292623543733498e-06
-2.251424348287401e-06
1.6154656350408914e-06
-9.426182714378228e-07
-1.7978202322410652e-06
-1.4269230632635299e-05
3.419053200559574e-06
1.4928163182048593e-05
5.592042384705564e-07
-4.311849806981627e-06
5.423805305326823e-06
-9.234905178345798e-07
-7.914322850410827e-06
9.997211947165852e-09
5.304048499965575e-06
-5.443408099381486e-06
6.305677743512206e-06
8.896009603631683e-06
1.0210183063463774e-06
-4.586751401802758e-06
6.216614423237843e-08
-8.528852958988864e-06
1.531937670051775e-07
3.7480831451830454e-06
-1.009921652439516e-05
-1.067600715032313e-05
5.094023549645499e-07
2.8138008474343223e-06
3.785599346883828e-06
-6.874736754980404e-06
-1.8092201571562327e-05
3.061577729113196e-07
4.803746833204059e-06
-8.145203196363582e-07
2.436456156829081e-07
-4.714038226438788e-08
7.538739282608731e-06
1.2156498996773735e-05
-1.3860757235306664e-06
3.797236161062756e-07
1.3472829962779542e-08
-6.147691237856634e-06
-2.7591781872615684e-06
-1.1467552212707233e-05
9.217891602020245e-06
1.439640618627891e-05
4.457203885976924e-06
-6.481247510237154e-06
-1.6247232679234003e-06
-1.116669523071323e-06
3.916245532309404e-06
-1.4706678257425665e-06
2.3600237909704447e-05
-1.096190680982545e-05
-5.063214302936103e-06
-5.337918196346436e-07
1.1605953659454826e-05
1.3961794138594996e-06
1.2836655969294952e-06
-2.1152283807168715e-05
-2.7004844014300033e-06
2.244304084797477e-07
1.3821445463690907e-05
-2.3498485006712144e-06
-1.1193062164238654e-05
-1.3782669157080818e-06
2.3468280687666265e-06
5.679581818185397e-07
-2.0266816136427224e-06
-7.988053766894154e-06
-2.4716673578950576e-06
8.909808570933819e-07
-5.064971446699928e-07
-4.126172370888526e-06
-9.599387340131216e-06
-1.6356393643945921e-06
-4.557087777357083e-06
-2.4232754185504746e-06
-1.2971767091585207e-06
-5.113136467116419e-06
4.3180598368053325e-06
3.5678497170010814e-06
7.681850547669455e-06
1.099577957575093e-06
-1.190264811157249e-06
-1.7391888604834094e-06
7.019588338152971e-06
3.079383304793737e-06
-1.2440423233783804e-05
-1.4687161637993995e-06
1.1846103916468564e-05
5.452980644804484e-07
-4.552472091745585e-06
3.456931835899013e-06
-4.1648709725450317e-07
-4.123031430935953e-06
-8.232327104451542e-07
9.951754691428505e-07
-1.458705901313806e-05
-7.438612556143198e-06
8.423777217103634e-06
-1.5236153558362275e-05
-3.001766344823409e-06
5.859744760527974e-06
2.721603050304111e-05
-1.9288463590783067e-06
1.0270613302054699e-06
-1.0733534736573347e-06
1.0127220093636424e-06
-2.579757278908801e-07
-6.237056823010789e-06
1.6122401120810537e-06
-4.0798354348225985e-06
-8.896233339328319e-06
-2.950007683466538e-06
3.8003290683263913e-06
-2.8912654670421034e-06
7.212040145532228e-06
-2.524448063923046e-06
-1.0414511280032457e-06
-3.7203025726739725e-07
-3.0115525078144856e-06
-3.1542774650006322e-06
-6.086867415433517e-06
-2.1646794721164042e-06
1.1511640877870377e-05
2.411272134850151e-06
-2.3565219180454733e-06
9.193853429678711e-07
-1.2708904932878795e-06
2.5934002678695833e-06
3.4294484976271633e-06
-4.277998868928989e-06
-5.960049747955054e-06
-6.1246946643223055e-06
-9.467799827689305e-06
