10
1
1
512
-9.799163080970175e-07
8.500428521074355e-06
9.603096486898721e-07
-2.9908865144534502e-06
-1.2280895589356078e-06
5.314500413078349e-06
-9.558343094795418e-08
5.646589670504909e-06
-8.521644758729963e-07
8.172668458428234e-06
2.0795648651983356e-06
-6.04601973464014e-06
-1.972410700545879e-06
-3.078809413636918e-06
-1.8212821260021883e-06
2.0582845081662526e-06
-3.4702338780334685e-07
-2.280309445268358e-06
-7.461799214070197e-06
1.6059560721259913e-06
-3.1150650556810433e-06
-2.1233793177088955e-06
-6.6177412918477785e-06
1.042148937813181e-06
1.559338471679439e-07
-2.9702998745051445e-06
1.5484112736885436e-05
2.1155969989195e-06
7.943566515677958e-07
2.3518643388342753e-07
-2.2611668555327924e-06
6.56096474926926e-08
-1.648256784392288e-06
-1.7859445051726652e-06
8.324799637193792e-06
2.491976374585647e-06
5.397990321398538e-07
4.4027719923178665e-06
2.063942474705982e-06
-2.9240973162814043e-06
-5.9149883782083634e-06
1.8058999557979405e-06
8.586600301896397e-07
4.556853127724025e-06
-6.164042133605108e-06
3.4113766105292598e-06
4.421411631483352e-06
-2.522991735531832e-06
-7.31238696971559e-06
-5.4914216889301315e-06
-1.7056315755326068e-06
-1.300693656958174e-05
-3.97083613279392e-06
4.067217560077552e-06
-1.2407881513354369e-06
-9.255165878130356e-07
-2.126295385096455e-06
-6.326180027826922e-06
-2.327111587874242e-06
-2.3429458906321088e-07
-6.327273695205804e-06
-1.550823071738705e-05
-3.701578862091992e-06
-1.7494662643002812e-06
-3.691730398713844e-06
-7.729644835308136e-07
1.196307152895315e-06
-1.4702083035444957e-06
8.413685463892762e-07
1.8442922282702057e-06
-5.834471039634082e-07
3.99739337808569e-06
1.4775865793126286e-06
1.0813964763656259e-05
-2.096666548823123e-06
2.098213371937163e-06
2.1501398350665113e-06
8.794471568762674e-07
8.821510164125357e-06
1.1698340358634596e-06
2.981302259286167e-06
-5.657800556946313e-06
-2.8954455046914518e-06
1.2190272400403046e-06
-1.0359441375840106e-06
6.197744369274005e-06
4.285693648853339e-06
1.492792080171057e-06
1.980485251351638e-07
-3.505969061734504e-06
-2.8902986741741188e-06
7.185537498344274e-08
-1.440152573195519e-06
3.6507740333036054e-06
-1.5284878145394032e-06
4.984154315934575e-07
-2.1978873974148883e-06
-8.779059612606943e-07
3.414775449073204e-07
-4.179576151841502e-08
-3.1507865969615523e-06
-1.746461066431948e-06
-9.569001804266009e-07
-1.4621097079725587e-06
-1.2952995120940614e-06
-6.053570359654259e-06
-1.0689061582525028e-06
5.622538083116524e-06
-2.4965493139461614e-06
-2.300597088833456e-06
-4.244812771503348e-06
-3.5274995298095746e-06
-1.572775909153279e-05
-1.1534505119925598e-06
2.386850837865495e-06
-3.595215048335376e-06
-2.335424653665541e-07
7.505312169087119e-06
-1.6776779148131027e-06
-1.199042117150384e-06
3.6646549688157393e-06
-1.0592096259642858e-05
1.7652622773312032e-05
4.970694931216713e-07
-5.492162102882503e-08
-2.8249696697457694e-06
2.727632136156899e-06
-1.6670460922796337e-07
-1.8188410422226298e-06
1.2346745279501192e-06
1.3654479289471055e-06
-7.398694492621871e-07
-1.4921007505108719e-06
4.7770413402759004e-06
-7.119734277694079e-07
-7.489435205343398e-08
-4.548867025278014e-07
5.8198988881486e-06
-4.108023404114647e-06
-3.568556792288291e-07
9.52655500441324e-06
-1.994031663343776e-06
-7.111408422133536e-07
4.000298304163152e-06
-1.6813874026411213e-07
6.297421350609511e-06
-2.045077735601808e-06
-6.444227437896188e-06
-2.9946299946459476e-06
-5.013355803384911e-06
1.5368038930319017e-06
-1.041898144649167e-06
8.521641575498506e-06
-1.4262483318816521e-06
-5.577686351898592e-06
2.214252162957564e-06
-4.022793746116804e-06
-4.077611265529413e-06
8.443331012131239e-07
-1.9060529439229867e-06
-3.754185399884591e-06
-3.7767135836475063e-06
-2.918927748396527e-06
2.392042688370566e-06
3.975214440288255e-06
4.09160429626354e-06
2.8814923780373647e-07
-1.3426871419142117e-06
-7.12994233253994e-06
-2.733184373937547e-06
-3.86942838304094e-06
-1.6391554709116463e-06
-2.7401360966905486e-06
-5.338836217561038e-07
-9.414162377652247e-06
6.60381317629799e-07
5.8584009821061045e-06
-3.0368896659638267e-06
2.2053401949051477e-07
-4.916279976896476e-06
-5.260824309516465e-06
-2.9639315926033305e-06
2.0548018255794886e-06
3.2496330959475017e-07
-1.8997487813976477e-06
-4.429488399182446e-06
4.670335783885093e-06
-4.235573214828037e-06
-3.6709693063130544e-07
-4.384973635751521e-06
5.5705909289827105e-06
-1.0264977845508838e-06
-4.812597126147011e-06
1.620662828827335e-06
-1.4651587889602524e-06
-6.493674845842179e-06
1.971740630324348e-06
-6.6412731030141e-06
-4.335132416599663e-06
2.2166282178659458e-06
-2.4280566890411137e-07
2.33208652389294e-06
-5.333400622475892e-06
-1.941192749654874e-06
9.68029326031683e-06
2.9808475119352806e-06
-4.739918040286284e-06
3.161712527344207e-07
-1.9408680600463413e-06
-5.3415506044984795e-06
-1.462359833226401e-08
-3.71096029994078e-06
3.3960620271500375e-07
-3.750303221750073e-06
2.602958602437866e-06
3.572179139155196e-07
-2.69711495093361e-06
2.858374955394538e-06
-2.775975417534937e-06
-4.716461262432858e-06
2.4839052912284387e-06
-1.6945583638516837e-06
-1.042464191414183e-06
2.739197100254387e-07
-6.964628482819535e-07
-7.11459870217368e-06
-3.6058429486729437e-06
3.748925792024238e-08
-2.956639718831866e-06
-5.132032470100967e-07
-4.009539679827867e-06
-3.7041788800706854e-06
-2.276446139148902e-06
-9.626782002669643e-07
3.3051392733796092e-09
-1.9690774024638813e-06
1.2129648894187994e-06
-2.968684157167445e-06
-3.2287277917930624e-07
6.417207032427541e-07
1.3907202855989453e-06
-3.093736722803442e-06
-8.940191037254408e-06
-1.0081007530970965e-06
3.98125985157094e-06
-1.5016734096207074e-06
-6.317303814284969e-06
7.084437925186648e-08
-4.325220743339742e-06
-2.0733859855681658e-06
-4.086647550138878e-06
-9.988287530404705e-08
-3.1405263598571764e-06
-1.6166947034434997e-06
-9.684661563369446e-06
-3.8304524423438124e-06
2.203274107159814e-06
-2.9373045435932e-06
-2.464709609739657e-07
3.22371465699689e-06
-3.734803158295108e-06
8.115951004583621e-07
7.994117368070874e-06
-1.6442947980976896e-06
5.586402039625682e-06
-4.707786956714699e-06
-3.3303110740234843e-06
-1.0883367167480174e-06
-3.393282440811163e-06
-1.1055194590881001e-06
-1.26281247503357e-06
-5.5383120525220875e-06
2.2085694126872113e-06
-4.3707439090212574e-07
2.607645228636102e-06
4.0710560256229655e-08
5.006719220546074e-06
4.814942826669721e-07
-2.51660640060436e-06
7.203157565527363e-06
-3.4712045362539357e-06
-7.436352916556643e-06
-4.941378392686602e-06
-2.2170931401888083e-07
-1.9102394617220853e-06
-3.5792468224826735e-06
2.2212784642761108e-06
-1.3305050572398613e-07
-1.3819008017890155e-06
2.837258762156125e-06
4.463615823624423e-06
-1.3489518551068613e-06
-7.366578529399703e-07
-4.610846644936828e-06
-3.893424604939355e-07
-1.205135617965425e-06
-2.938714715128299e-06
-5.082367238173902e-07
-1.871195877356513e-06
-5.392123057390563e-06
2.856829723896226e-06
2.2056481157051167e-06
1.169633719655394e-06
-4.938889105687849e-06
-2.063149395326036e-06
-4.156876457273029e-06
-3.68501082448347e-06
2.6212330794805894e-06
6.443183906412742e-07
2.9897446438553743e-06
2.226338210675749e-06
-3.328442801375786e-07
4.13001180277206e-06
-5.19503555551637e-06
8.611627322352433e-07
-1.9903870907000965e-07
-2.3202305783343036e-06
3.220456164854113e-06
5.224053893471137e-06
3.2900588848860934e-06
-3.594566123865661e-06
-2.8531965199363185e-06
-8.762299330555834e-06
-7.756909326417372e-06
1.0182107871514745e-05
-8.994627933134325e-06
-1.760290047059243e-06
-4.326438101998065e-06
-7.258654477482196e-06
1.4149646858641063e-06
-1.3239166946732439e-05
1.6278795555990655e-06
-9.207660127685813e-07
-2.357370703975903e-06
-9.129945510721882e-07
-4.628956958185881e-06
1.475149588259228e-06
-4.212554358673515e-06
-4.665293090511113e-06
-2.864799625967862e-06
-3.7385441373771755e-06
-2.482800937286811e-06
-1.9893025182682322e-06
1.6335469581463258e-06
-2.6132745460927254e-06
7.864854723038661e-08
-8.490573236485943e-06
-2.202024461439578e-06
1.0609996792254606e-07
-9.082499445867143e-07
-7.9638130046078e-07
-4.101675131096272e-06
7.347372843469202e-07
2.4602506982773775e-06
2.9320933663257165e-06
4.716251169156749e-06
3.273758920840919e-06
4.2432026248206967e-07
-3.344738843225059e-06
-2.2770429950469406e-06
-4.906707545160316e-06
-5.701821919501526e-06
1.29735587961477e-06
-9.604275874153245e-06
-3.7458712540683337e-06
-1.5932459973555524e-06
6.717797873534437e-07
3.2150146580534056e-06
2.260890596517129e-06
8.282316912300303e-07
6.795628451072844e-07
-1.2499383501562988e-06
-4.219413312966935e-06
-6.978349574637832e-06
-2.2997207338448789e-07
9.691170816950034e-07
-2.144116251656669e-06
1.3142263242116314e-06
1.7189867094202782e-06
-5.381430696616007e-07
4.269741111784242e-06
-7.555181127827382e-06
1.3209180451667635e-06
8.857236935000401e-06
-5.982260972814402e-06
6.059548240955337e-08
-4.063240339746699e-06
-4.397138127387734e-06
-2.7717660486814566e-06
2.0463728560571326e-06
2.162329792554374e-06
1.5908590285107493e-05
-7.772353001200827e-07
-4.05396622227272e-06
4.242641864493635e-07
-5.723919684896828e-07
1.4828344774286961e-06
-1.0562155949855878e-07
-6.453684363805223e-06
-3.631900426626089e-06
-3.692927350584796e-07
3.308246277811122e-06
5.184691417525755e-06
-4.3681739043677226e-06
3.631835170381237e-06
-3.017312565134489e-06
2.6077216261910507e-06
-1.1526474281708943e-06
1.3297069756390556e-07
-1.1785476999648381e-05
-1.3490729543264024e-05
4.890108584731934e-07
-1.4557240319845732e-06
-1.010643927656929e-06
-6.045630470907781e-06
-5.921864612901118e-06
-1.2539554745671921e-06
1.1226502465433441e-06
-3.27191014548589e-06
-3.2376656236010604e-06
5.704966497432906e-06
6.7089877120452e-06
2.5613901470933342e-06
7.59256681703846e-06
-2.294147861903184e-06
-1.3372223293117713e-06
-2.38759457715787e-06
-5.318438525137026e-06
-1.8588099237604183e-06
-3.097567287113634e-06
5.144371471033082e-07
-2.5894237296597566e-06
-5.381428309192415e-06
2.2863151372121138e-08
1.095779225579463e-05
3.647923676908249e-06
4.1817617812967e-08
-2.9060745418973966e-06
1.029106442729244e-05
4.4431940295908134e-06
-1.4015713531989604e-06
-1.424475158273708e-06
3.331067091494333e-06
6.783330718462821e-06
3.809617055594572e-06
6.139950414763007e-07
-3.7143609006307088e-06
2.5175577320624143e-06
-5.898976723983651e-06
-4.19946036345209e-06
-1.070550388249103e-05
-2.4343630684597883e-06
-2.3675465854466893e-06
-1.3708058759220876e-06
-4.430954504641704e-06
1.930414782691514e-06
5.356339443096658e-06
3.339476506880601e-06
9.053317626239732e-06
-3.3676424209261313e-06
1.939942421813612e-06
-1.0841832818186958e-06
-1.5903893881841213e-06
5.019576292397687e-06
3.2637447020533727e-06
-2.0403026610438246e-06
6.987949291215045e-06
1.944356199601316e-06
-1.61762727657333e-05
-2.420374130451819e-06
-6.726130777678918e-06
-4.285820068616886e-06
1.967177496453587e-07
-9.350810614705551e-07
-2.9733607789239613e-06
-1.6755624301367789e-06
-8.307231382786995e-07
-7.817305231583305e-06
-1.7249211623493466e-06
-1.3585378837888129e-05
-3.1921931054057495e-07
-1.3027736258663936e-06
4.48845867140335e-06
-5.1566048568929546e-06
-1.98669795281603e-06
1.7689424112177221e-06
-3.8053672142268624e-06
2.106612555508036e-06
-4.751442247652449e-06
4.259093657310586e-06
3.8985626815701835e-07
-2.7235093966737622e-06
1.5649819715690683e-06
3.239991031023237e-07
-2.6523064207140123e-06
-4.689374236477306e-06
5.659790531353792e-06
-4.8661436267138924e-06
7.521134193666512e-06
3.9680054442214896e-07
5.68725852190255e-07
-1.4894440937496256e-05
3.2210766676143976e-07
5.005478669772856e-06
-1.8281407392350957e-06
-6.47711613055435e-06
5.2187037908879574e-06
-2.6228807570305435e-08
4.279315362509806e-06
4.1151224650093354e-06
2.6215320758637972e-06
5.059080194769194e-07
