10
1
1
256
-2.8197562187415315e-06
-5.716834152735828e-07
-3.5904058677260764e-06
5.063517164671794e-06
4.987496140529402e-07
-5.906031219637953e-07
-3.2922098398557864e-06
-2.6570407953840913e-06
-1.60654792580317e-06
-8.126205557346111e-07
-8.72749069458223e-07
-2.349936494283611e-06
-6.7275448145665e-07
4.194333541818196e-06
9.256411317437596e-07
4.492073060191615e-07
3.6294969163463975e-07
-9.403266290064494e-07
-6.598208415198314e-07
4.774543072016968e-07
3.013816467500874e-06
-3.1468407541979104e-06
-1.6164505041160737e-06
-2.4759824555076193e-06
-1.0592085573080112e-06
5.4085198826214764e-06
2.6663608423405094e-06
-1.9259653072367655e-06
4.546725733689527e-07
-2.0153446200765757e-07
-3.6129733871348435e-07
2.4693440536793787e-06
-4.279379481886281e-06
-1.1686021252899081e-06
-1.1418177336963709e-06
9.430532372789457e-07
-5.713314408239967e-07
3.925187229469884e-06
1.415269821336551e-07
-6.065773732188973e-07
6.187245276123576e-07
-8.363023198398878e-07
7.599633136123884e-07
1.6886116327441414e-07
3.4267449677827244e-07
-3.53151654053363e-06
-5.467620667332085e-07
-1.5846449059608858e-06
-2.7484761631058063e-06
-4.099881039110187e-07
2.4183691493817605e-06
-1.268205551241408e-06
-2.1231926439213566e-06
3.811087253779988e-06
7.393491614493541e-06
4.468404881663446e-07
1.8401195802653092e-06
3.195173349013203e-06
-1.8554136431703228e-06
3.077949486396392e-06
-1.9013826602076733e-07
2.5210631520167226e-06
1.750674755385262e-06
-8.058783578235307e-07
-7.648574182894663e-07
8.070140324889508e-07
1.6413813455073978e-06
6.02483254397157e-08
-6.548708597620134e-07
-1.2534975439848495e-06
2.619089173094835e-06
1.8951650417875499e-06
1.165666731139936e-06
7.597456601615704e-07
-7.36730072503633e-08
-2.0685031358880224e-06
1.5031741895654704e-06
-9.329805834568106e-07
-1.3054456076133647e-06
6.160400403132371e-07
9.920427146425936e-07
5.85972600219975e-07
-2.522310182939691e-07
-1.0278461104462622e-06
7.683871103836282e-07
-1.1246216899962747e-06
-2.576495035100379e-06
6.057339163589859e-08
-3.3638864351814846e-06
2.276116219945834e-07
-8.505133450853464e-07
-3.7400245673779864e-06
4.288641321181785e-06
-7.422090106956603e-07
-1.977500460270676e-06
2.4960045266197994e-06
2.4512589789082995e-06
-4.218236142605747e-07
-1.1083917570431367e-06
-3.3964597605518065e-06
4.6476694137709273e-07
1.0344261909267516e-06
2.1379473480465094e-07
-6.489265615527984e-06
-2.7097203769699263e-07
2.483846401446499e-06
-3.808796918747248e-06
4.0947634261101484e-06
-1.3553327562476625e-06
-5.392377033786033e-07
1.020904960569169e-06
-3.3299324968538713e-06
-2.1837952317582676e-06
2.652621788001852e-06
-2.7621049980552925e-07
-2.7103965294372756e-06
-1.68730537097872e-07
-1.2446322443793179e-06
-8.127323098960915e-07
6.116352437857131e-07
1.3016208413318964e-06
-1.7935382174982806e-06
-5.287207613946521e-07
-4.947497927787481e-06
4.399436875246465e-06
4.83629378322803e-07
-1.3138140957380529e-06
-1.5043040093587479e-06
8.197054057745845e-07
4.346417199485586e-07
5.044266231379879e-07
1.2263394637557212e-06
9.384431791659154e-07
5.986897804177715e-07
-3.586162904412049e-07
-1.794377681108017e-06
-3.289001824668958e-06
-1.3761050468019675e-06
2.788233359751757e-07
4.3746517803811e-06
-3.201749336767534e-07
-1.7177394511236344e-06
-1.7679518578006537e-06
-1.0282653875037795e-06
-1.4733672060174285e-06
-2.3394755999106565e-07
-2.0137180456458736e-07
5.991587954667921e-07
-4.320108018873725e-06
3.507119572532247e-06
4.796443064947198e-08
-1.41950272336544e-06
-4.090498805453535e-06
-1.2096616330836696e-07
-8.006878147170937e-07
1.0672932830857462e-06
1.0506923899811227e-06
-4.6930217649787664e-06
-8.002912750271207e-07
-2.40900931203214e-06
-2.5505796656943858e-06
-2.1674388790415833e-06
2.927492687376798e-06
-1.5508812793996185e-06
2.942555056506535e-06
-3.6574988371285144e-06
-2.167954335163813e-06
2.1449091036629397e-07
2.0082288187950326e-07
7.257067977661791e-07
-4.770815849042265e-07
1.7040001409895922e-07
-1.65062221668677e-08
-4.014905528038071e-07
-1.8159178125642939e-06
1.2382421346046613e-06
-4.3546540950956114e-07
-5.304572709974309e-07
2.198316479962159e-07
-6.733442887707497e-07
-9.750144158715557e-08
3.4245119877596153e-06
-7.449845185192316e-08
4.8766692088975105e-06
-1.1855119055326213e-06
-7.569096851511858e-06
3.225663078865182e-07
-1.5312202776840422e-06
-3.7568613606708823e-06
4.2414658310008235e-06
-5.677842978002445e-07
-8.93587525752082e-07
1.6805114455564762e-06
3.1753359053254826e-06
2.03191902414801e-07
5.800993676530197e-07
4.06910976380459e-06
-3.337189582452993e-07
4.29542922120163e-07
-5.818588988404372e-08
5.628144776892441e-07
-2.1618557184410747e-06
-2.036038267760887e-06
-1.1722100907718414e-06
-5.6818418414650296e-08
-5.228645477473037e-06
-2.23915844799194e-06
4.459887179564248e-07
3.420958819333464e-06
1.1302022357995156e-06
2.2119984350865707e-06
5.299801841829321e-07
-1.2737104952975642e-06
-1.5912750228608274e-08
-6.426050731533905e-07
3.5451481039672217e-07
-2.085489995806711e-06
-1.931481165229343e-06
2.265064267703565e-06
8.52580086529997e-08
1.2616148978850106e-06
4.6309191930049565e-06
3.974377307258692e-07
5.95683104620548e-07
2.3373220869871147e-07
-1.3244616070551274e-07
3.6159424325887812e-06
-2.8682507036137395e-06
-1.418924057361437e-06
-2.253153297715471e-06
-1.5175662611000007e-06
-2.333923021069495e-06
5.882822733838111e-06
9.293387847719714e-06
-7.457399533450371e-07
2.8178388333799376e-07
-2.255585741295363e-06
-8.5080955614103e-07
5.279076503938995e-06
2.1836510768480366e-06
-2.0994848455302417e-06
-4.851671292271931e-06
-8.748573918637703e-07
-6.812284141233249e-07
5.257452812656993e-06
-3.3196072308783187e-06
1.4118344324742793e-06
2.487481367552391e-07
3.9494469206147187e-07
-1.10924884211272e-06
-6.40412281427416e-07
-1.3500061868398916e-06
-8.670119733267256e-09
-9.805340823731967e-07
1.942441258506733e-06
1.157314954980393e-06
