10
1
1
256
1.462077761971159e-06
-3.758871116588125e-06
-3.1950387437973404e-06
5.75368221689132e-06
2.095952550007496e-05
-1.0139875712411595e-06
-1.1382052207409288e-06
-5.249155037745368e-06
2.900733989008586e-06
-2.397228627160075e-06
-3.622822077886667e-06
-1.8825043298420496e-05
4.1529006011842284e-06
1.2752311704389285e-06
-8.69582891027676e-06
-4.162974391874741e-07
-1.1450739293650258e-05
1.5627867469447665e-05
-1.9393844752357836e-07
8.278281711682212e-06
1.2540084526335704e-06
-7.4486765697656665e-06
-8.117766014947847e-07
6.75681349093793e-06
-4.3147204564775166e-07
5.192235903450637e-07
1.842781642835689e-07
9.51462334342068e-06
8.072817081483663e-07
4.978306151315337e-06
-6.924803415131464e-07
1.0119516446138732e-05
-8.72277382768516e-07
-2.670256890269229e-06
-1.2136782743255026e-06
-3.576911012714845e-06
3.1638176096748793e-06
5.424914775176148e-07
1.5928852690194617e-06
-9.055713121597364e-07
-3.044904815396876e-06
-1.1604907740547787e-05
-1.8468242615199415e-06
9.172208592644893e-06
-3.8097637116152328e-06
-1.907034629766713e-06
-2.8757808649970684e-06
-6.018078124725434e-07
-1.380519051963347e-06
-5.567621428781422e-06
-5.8131727200816385e-06
-1.3670757653017063e-05
4.6555078370147385e-06
1.0820788702403661e-05
1.5989126040949486e-06
8.076454349748019e-08
2.12490267585963e-05
-2.729990455918596e-08
-1.882122342067305e-05
-7.658599088244955e-07
-4.327052920416463e-06
6.120378657215042e-06
-2.1097168882988626e-06
-7.06381001691625e-07
-7.680204362259246e-06
-1.2473750530261896e-06
-3.821905920631252e-07
-8.879687243279477e-07
2.6417745857543196e-07
-3.0825867725070566e-07
1.2538762348413002e-06
5.490276635100599e-06
7.446001745847752e-06
1.7324286091024987e-05
3.142154810120701e-06
5.089486307952029e-07
5.6158951338147745e-06
5.395720563683426e-07
5.928959581069648e-06
-2.439055833747261e-06
-2.218299187006778e-06
5.611208280242863e-07
3.87123520795285e-07
-5.549165052798344e-06
3.867318412176246e-07
-7.19047011443763e-06
7.39901588531211e-06
-9.018617106448801e-07
-2.8101253519707825e-06
4.9641694204183295e-06
-9.540221981296781e-07
-3.205003849870991e-06
-1.4210418157745153e-06
-4.655138127418468e-06
-3.3969281503232196e-06
-5.0318118560710445e-09
1.615961446077563e-05
-1.78255419314155e-08
1.0593896604405018e-06
-7.880319117248291e-07
8.180143709068943e-07
4.443726993486052e-06
-7.848107088648248e-06
-8.36503750178963e-06
-1.178438924398506e-05
-3.6279418509366224e-06
1.1605127383518266e-06
-3.5529833439795766e-06
2.581449507488287e-06
1.3618284810945624e-06
-8.1045004662883e-07
1.016299165712553e-06
1.1851353519887198e-05
-7.6019882726541255e-06
-5.772799795522587e-06
-1.6788173525128514e-05
-1.0410289178253151e-05
8.461998731945641e-06
1.5280995739885839e-06
9.456718544242904e-06
-1.1489156577226822e-06
8.239024282374885e-06
5.4783963605586905e-06
1.3208835298428312e-05
-3.4120937471016077e-06
-1.5749761814731755e-06
-1.1223081628486398e-06
-1.4871636722091353e-06
2.0424560716492124e-05
-5.85654049700679e-07
-1.2184588058516965e-06
7.078376142999332e-07
-8.38487892451667e-07
1.2029201570840087e-05
-5.045757234256598e-07
2.69086672233243e-06
5.509807579073822e-07
8.116624485410284e-06
-8.192787959160341e-07
-7.450328212144086e-06
4.5651436266780365e-06
3.647284074759227e-07
1.4481205653282814e-05
-5.304757451085607e-06
-1.0397870937595144e-06
-3.9776155063009355e-06
3.3241142318729544e-06
1.0886163863688125e-06
-6.783027970413968e-07
-1.2542391232273076e-06
-1.953658738784725e-06
3.3542046367074363e-06
-1.0765155820990913e-05
7.018749329290586e-06
-1.1909166460100096e-05
-1.0819138879014645e-05
-7.86564680055335e-09
2.253397497042897e-06
-2.7933620572184736e-07
7.003850441833492e-07
1.7336731161776697e-06
-4.3428187268546026e-08
-1.1034798035325366e-06
-7.842126592549903e-07
1.2403851314957137e-06
4.885116027253389e-07
-1.388513010169845e-05
-2.241941729153041e-06
-9.316091563960072e-06
1.752366188156884e-05
-1.9838198568322696e-06
1.9844280814140802e-06
-2.599249739887455e-07
3.2139059840119444e-06
-2.064678028546041e-07
1.200762199005112e-05
-1.8010059648077004e-06
-3.082445346080931e-06
1.5769785477459664e-06
8.590945981268305e-07
-1.2578024097820162e-06
6.156008566904347e-06
-1.417080329702003e-05
-7.5189018389210105e-06
2.6378244001534767e-05
-6.403772204066627e-06
-3.4836336908483645e-06
-1.121375703405647e-06
-9.879901199383312e-07
-1.0636777915351558e-05
1.4498461496259551e-05
4.996998086426174e-06
-3.8854867057125375e-07
1.0209889751422452e-06
-8.10186884336872e-06
2.6107995836355258e-06
9.831981060415274e-07
2.1924360282810085e-07
9.935545222106157e-07
-7.991136953933164e-06
8.297069143736735e-06
-4.378827725304291e-06
1.3917988326284103e-06
7.857466698624194e-06
-2.5881113288050983e-06
-5.2347932069096714e-06
-1.27687862914172e-05
6.259597853386367e-07
-2.379327725066105e-06
5.062286732027133e-07
1.7148108781839255e-06
-2.74822150458931e-06
-4.542365559245809e-07
-9.525919608677214e-07
1.7382406440447085e-05
1.2676425740210107e-06
-1.351751052425243e-05
1.6775817357483902e-06
-1.6002042684704065e-05
-1.781723949534353e-05
-7.661175914108753e-06
-4.6219111027312465e-06
8.396600605919957e-07
-1.8238162056150031e-06
-2.686078914848622e-06
5.012692781747319e-06
6.186734935909044e-06
2.1478429061971838e-06
8.598676117799187e-07
-8.542845648662478e-07
-1.5844932477193652e-06
-2.424399099254515e-06
2.4928410766733577e-06
2.134626265615225e-05
-3.4819584016076988e-06
1.3451480299409013e-05
1.5560872270725667e-05
-2.059671714960132e-06
-9.629465012039873e-07
-8.711831469554454e-06
-9.668000302553992e-07
3.3351789170410484e-06
-1.540918674436398e-05
-1.3203436537878588e-05
-1.9594348543705564e-07
-1.8970599739986937e-06
-7.852807357267011e-06
-2.0594818579411367e-06
2.3093998606782407e-05
-3.984484010288725e-06
-3.917394224117743e-06
5.468002086672641e-07
1.088994395104237e-06
5.1255756261525676e-06
-7.823910891602281e-06
-1.6092286614366458e-06
