10.0
1.0
1.0
256.0
0.03924369066953659
0.2199304699897766
-0.09830426424741745
-0.3199247419834137
-0.29725340008735657
-0.28312015533447266
-0.36278513073921204
0.3024149537086487
-0.16473311185836792
0.09195910394191742
-0.5782176852226257
-0.1526329666376114
-0.33349609375
-0.18186526000499725
-0.529137909412384
0.19759714603424072
-0.10333121567964554
-0.44599518179893494
0.24519240856170654
0.37140390276908875
0.35515621304512024
-0.3761216998100281
-0.25405222177505493
-0.4473237693309784
-0.17769108712673187
0.23653095960617065
-0.28748878836631775
-0.27738285064697266
0.21314968168735504
-0.2416624277830124
-0.3601236939430237
0.05195663124322891
0.15108118951320648
-0.5457358956336975
-0.1193314790725708
-0.20465318858623505
-0.15585045516490936
-0.023253081366419792
0.13953649997711182
-0.5858504176139832
-0.1640629768371582
0.20636020600795746
-0.09694339334964752
0.2428824007511139
0.24573025107383728
-0.3474263846874237
-0.2553831934928894
0.050455447286367416
0.05326540023088455
-0.2549661695957184
-0.11328120529651642
-0.1692183017730713
0.22405749559402466
-0.5245468616485596
0.5391775965690613
-0.09118373692035675
-0.17309583723545074
0.1567043513059616
0.20391426980495453
-0.04124977067112923
0.44270065426826477
-0.11911627650260925
0.0544116385281086
-0.28289827704429626
-0.43564847111701965
0.2617778778076172
0.26533082127571106
0.2757566571235657
0.12633810937404633
-0.5107520818710327
-0.22046804428100586
0.10174616426229477
0.21583282947540283
0.02224802039563656
-0.3470068573951721
-0.13100966811180115
0.02225498855113983
0.612799882888794
0.25862619280815125
-0.47341036796569824
-0.15556180477142334
0.15788941085338593
0.5956527590751648
0.2238239198923111
0.1430760771036148
0.010350188240408897
-0.20366522669792175
0.5472841262817383
-0.20201043784618378
0.3208667039871216
0.23912055790424347
0.09477370232343674
0.08908655494451523
0.08165097236633301
-0.1917189657688141
-0.44167423248291016
-0.18969693779945374
0.31725451350212097
0.2060057818889618
-0.2219463437795639
-0.05786248669028282
-0.5926831960678101
0.14890140295028687
-0.3489013612270355
0.15458163619041443
-0.1388826221227646
0.5208633542060852
-0.5936399102210999
0.054185669869184494
-0.05647650361061096
-0.26197758316993713
-0.341842383146286
0.14338387548923492
0.27333423495292664
0.13158735632896423
-0.15168550610542297
0.15057870745658875
-0.26112163066864014
0.09957601875066757
0.15005610883235931
0.055844828486442566
-0.31867456436157227
-0.42839333415031433
0.20525577664375305
-0.5138881802558899
-0.1250312328338623
0.09612053632736206
-0.4203796684741974
-0.056202519685029984
0.41329827904701233
0.21303804218769073
0.176984503865242
0.2838249206542969
-0.038367241621017456
0.1547081619501114
-0.34444427490234375
0.5215930342674255
0.05323809012770653
-0.14806245267391205
0.23762452602386475
-0.23543919622898102
-0.15626516938209534
-0.024873532354831696
0.3331315219402313
-0.2394603043794632
0.11246580630540848
0.0035007349215447903
-0.355303555727005
0.012789400294423103
0.4623580574989319
0.19879762828350067
0.32706522941589355
-0.3644102215766907
0.2803918421268463
-0.02453640289604664
-0.14034800231456757
0.298470675945282
-0.44923296570777893
-0.12491019815206528
0.10023623704910278
0.050269030034542084
0.1322469264268875
0.46612563729286194
0.6015881896018982
-0.46161583065986633
-0.4392440617084503
-0.2543715238571167
-0.15796300768852234
0.43690669536590576
-0.36128002405166626
-0.07569137960672379
-0.21393926441669464
0.3141322433948517
-0.07988165318965912
-0.014903780072927475
-0.3080260157585144
-0.2434285432100296
-0.11005410552024841
0.14767508208751678
0.15508919954299927
-0.2838003933429718
-0.07035491615533829
0.2841843068599701
-0.3324083387851715
-0.030229169875383377
-0.34453389048576355
-0.1318153291940689
-0.07995184510946274
-0.13611459732055664
-0.5058979392051697
-0.10327017307281494
0.2715592384338379
0.14392021298408508
0.570215106010437
0.06018662825226784
0.38634589314460754
-0.16647666692733765
0.5305670499801636
-0.634019672870636
0.3246122896671295
-0.010920370928943157
0.07913234829902649
0.1924249231815338
0.450945645570755
-0.08360873907804489
0.002621011110022664
0.28841108083724976
0.4525456726551056
-0.14557187259197235
-0.3464382588863373
-0.4136314392089844
0.5416072607040405
-0.32422614097595215
-0.26708900928497314
-0.4452858865261078
-0.14709347486495972
-0.07391715794801712
0.3421696424484253
-0.1554001271724701
0.39786970615386963
-0.259628564119339
-0.3049164414405823
0.36657533049583435
-0.6284376382827759
-0.02307613007724285
-0.3816000819206238
0.38421592116355896
0.11305534839630127
0.36424437165260315
-0.06978029012680054
-0.1292375773191452
0.3713088631629944
0.331415593624115
-0.030355753377079964
-0.04305348917841911
-0.42733651399612427
-0.020995784550905228
-0.49491915106773376
0.3083302974700928
-0.2819613218307495
0.005461324937641621
0.41387099027633667
0.22619354724884033
0.440349280834198
0.15021224319934845
0.21196845173835754
-0.17805629968643188
0.027005013078451157
-0.5508407354354858
0.2754391133785248
0.16005878150463104
-0.3763379752635956
-0.2673324942588806
-0.36632901430130005
0.5112951397895813
0.06575679779052734
