10
1
1
128
-0.5808069109916687
-0.16423174738883972
0.28830814361572266
-0.35984453558921814
0.37919512391090393
-0.26901447772979736
-0.5246017575263977
-0.5691850781440735
0.5764935612678528
-0.6150670647621155
0.09909328818321228
-0.3177179992198944
-0.3013079762458801
0.42658179998397827
0.8564514517784119
0.43626517057418823
-0.5027965307235718
0.373868465423584
-0.5475074648857117
-0.6271437406539917
0.852420449256897
-0.4578911066055298
0.18921811878681183
0.5664717555046082
-0.5718068480491638
-0.327713280916214
-0.48775264620780945
0.20209333300590515
-0.3339545428752899
0.2632759213447571
0.5232966542243958
-0.5087966918945312
0.2521371841430664
0.5953882932662964
0.3548073470592499
-0.5564214587211609
-0.5540627837181091
0.3571928143501282
0.25498899817466736
0.16101785004138947
-0.3714159429073334
0.28174468874931335
0.5318226218223572
0.15264004468917847
-0.49271780252456665
0.4198264181613922
0.48480692505836487
-0.42095980048179626
-0.3002038896083832
0.5954739451408386
-0.4030889868736267
0.5000086426734924
-0.5126053094863892
-0.25755032896995544
0.3773113489151001
0.4756321907043457
-0.4701654613018036
0.4150186777114868
-0.2980380058288574
-0.15097077190876007
0.5033506751060486
0.4916010797023773
0.3745955526828766
-0.10115226358175278
-0.14684948325157166
-0.4672180712223053
0.5411216616630554
0.6110811829566956
-0.7025945782661438
1.244803786277771
0.45049700140953064
0.49312373995780945
-0.5289885401725769
-0.3996860384941101
-0.37849298119544983
-0.3583882451057434
0.1869206577539444
0.6613202095031738
0.3649572432041168
0.6892389059066772
0.6947353482246399
0.1763114333152771
0.48803770542144775
-0.548835277557373
0.8453214764595032
-0.2426777482032776
-0.35956498980522156
-0.22332008183002472
0.3333929777145386
0.30751991271972656
-0.38933810591697693
0.08677991479635239
-0.2658500373363495
-0.18787556886672974
-0.16026602685451508
-0.33819687366485596
0.57270747423172
0.5000786781311035
0.159910187125206
-0.5622656345367432
-0.5794646143913269
-0.32775619626045227
0.3629571795463562
0.24158525466918945
0.33653751015663147
0.1672443151473999
0.6003084182739258
-0.4327217936515808
0.30252185463905334
0.509823739528656
-0.11376972496509552
0.697458028793335
0.9480710029602051
0.6214591264724731
-0.6703602075576782
0.5313219428062439
-0.5170629620552063
-0.29469794034957886
0.42171406745910645
0.510855495929718
-0.38077282905578613
-0.12791544198989868
0.43333420157432556
-0.2932197153568268
0.15012219548225403
-0.2520497739315033
-0.22309881448745728
0.3042416274547577
