10.0
1.0
1.0
64.0
-1.071418046951294
-0.2979995906352997
-1.0733184814453125
0.4431135654449463
0.4973989725112915
0.23265282809734344
-0.12975198030471802
-0.3180038630962372
-0.04251484572887421
0.4039270281791687
0.7762709259986877
-0.4157884418964386
-0.8477790951728821
-0.07289864122867584
0.5408690571784973
-0.8185267448425293
0.45155900716781616
-0.2104794830083847
-0.3893893361091614
0.9222272634506226
0.2432871162891388
-0.037156250327825546
0.4807482063770294
-0.08686432242393494
-0.20206685364246368
0.8130870461463928
-0.41517749428749084
0.07659844309091568
0.15398471057415009
0.4233147203922272
0.11365383118391037
0.12441781163215637
0.8292787075042725
-0.7920530438423157
-0.275806188583374
0.5473561882972717
0.24910862743854523
0.3965238928794861
0.39924702048301697
0.7221988439559937
-1.4753788709640503
0.5054265260696411
0.03723541274666786
0.6944449543952942
-0.30997297167778015
-0.7062819004058838
0.25521957874298096
-0.04544001445174217
0.37736862897872925
0.7744587063789368
-0.9732595086097717
0.6641819477081299
0.18870803713798523
-0.6072420477867126
0.7282744646072388
0.15900778770446777
0.39544743299484253
0.5982070565223694
0.13451994955539703
0.0125014903023839
0.04088074341416359
-1.4576281309127808
0.9547410607337952
0.9036442637443542
